{"voxel_size": 0.006640625, "block_size": 30, "grid_width": 512, "grid_height": 512, "grid_depth": 512, "atlas_width": 2048, "atlas_height": 2048, "atlas_depth": 32, "num_slices": 8, "min_x": -1.7, "min_y": -1.7, "min_z": -1.7, "atlas_blocks_x": 64, "atlas_blocks_y": 64, "atlas_blocks_z": 1, "input_height": 800.0, "input_width": 800.0, "input_focal": 1492.820323027551, "worldspace_T_opengl": [[-1.0, 0.0, 0.0, 0.0], [0.0, 0.0, 1.0, 0.0], [0.0, 1.0, 0.0, 0.0], [0.0, 0.0, 0.0, 1.0]], "ndc": false, "0_weights": [[-0.08388786017894745, 0.12642645835876465, -0.337346613407135, -0.2273482382297516, -0.04394754394888878, 0.15014798939228058, -0.21476997435092926, 0.10043124854564667, -0.14663165807724, -0.068765789270401, -0.06272193044424057, -0.07254618406295776, -0.038212813436985016, -0.19368506968021393, -0.16142630577087402, -0.03155193477869034], [0.3218115270137787, 0.20492719113826752, 0.20263320207595825, -0.06200098991394043, -0.3212161362171173, -0.3065066337585449, -0.17338477075099945, -0.12765835225582123, -0.3657280504703522, -0.09277097135782242, -0.30249321460723877, -0.00682417768985033, 0.016405001282691956, -0.051228076219558716, 0.007735940627753735, 0.1141698881983757], [0.040220096707344055, -0.1615774929523468, 0.40832868218421936, 0.05502820014953613, -0.3873765468597412, 0.23308119177818298, -0.12854717671871185, 0.07566333562135696, 0.257095068693161, -0.04242366552352905, -0.05820083990693092, -0.27388501167297363, -0.14866729080677032, 0.06815949082374573, -0.3698001801967621, -0.2659841775894165], [0.13156169652938843, -0.07662594318389893, -0.3133017420768738, 0.10279592871665955, -0.010995476506650448, -0.24530154466629028, -0.23834224045276642, 0.24014544486999512, 0.36754387617111206, -0.07580775022506714, -0.27835190296173096, -0.12380819767713547, 0.11923393607139587, -0.17060449719429016, -0.002992179710417986, -0.08723586052656174], [-0.04610767215490341, 0.13806286454200745, -0.10074885934591293, 0.19689515233039856, 0.11348595470190048, 0.14601941406726837, 0.37306880950927734, 0.2393726110458374, 0.21379311382770538, -0.19728390872478485, -0.13960163295269012, 0.15517906844615936, 0.10242816805839539, -0.10123711824417114, -0.08108368515968323, 0.18091607093811035], [-0.049202051013708115, -0.18329095840454102, -0.10156206041574478, -0.3718373477458954, 0.10066815465688705, -0.3049536347389221, 0.4143422544002533, -0.22432740032672882, -0.2957282066345215, 0.007250021677464247, 0.07953697443008423, 0.13481754064559937, -0.03375624492764473, -0.10229173302650452, -0.34665295481681824, 0.037949614226818085], [-0.07998333871364594, 0.17928266525268555, -0.30162471532821655, 0.01744694449007511, 0.0915805846452713, 0.17274224758148193, 0.33611148595809937, -0.1690785437822342, 0.08495520055294037, -0.005668821278959513, -0.07043112069368362, 0.155443474650383, 0.016078375279903412, 0.18796981871128082, 0.10597048699855804, -0.06819604337215424], [-0.27760758996009827, -0.2868650257587433, -0.023731155321002007, -0.0729418694972992, -0.17994071543216705, 0.08884778618812561, -0.12640385329723358, -0.06182769313454628, 0.14577032625675201, 0.13822312653064728, 0.2337644398212433, -0.1918763369321823, 0.2556050419807434, 0.20243537425994873, -0.12450172752141953, -0.06635143607854843], [0.28694209456443787, 0.16740570962429047, -0.09442456811666489, -0.14246825873851776, -0.32051700353622437, -0.2608046233654022, -0.022350946441292763, -0.112649105489254, 0.2568192780017853, 0.10131102800369263, -0.3857596516609192, 0.14771276712417603, 0.011464284732937813, -0.12543483078479767, -0.09497963637113571, 0.12710055708885193], [0.028121942654252052, 0.12267367541790009, -0.08181513845920563, -0.00749222794547677, -0.019798079505562782, -0.003294236958026886, -0.09374018758535385, 0.08679594844579697, -0.10137397050857544, 0.040275219827890396, 0.10538233071565628, -0.051086414605379105, 0.005320570897310972, 0.009645560756325722, -0.009367314167320728, 0.10329584032297134], [0.08288220316171646, 0.00539515120908618, -0.05817211791872978, 0.004402034915983677, 0.15690107643604279, -0.006510104984045029, 0.02667165920138359, 0.029598280787467957, -0.12940607964992523, -0.004945595748722553, 0.06575509160757065, 0.0791911706328392, -0.0419241227209568, -0.012755336239933968, 0.10964028537273407, -0.017112838104367256], [0.18408921360969543, -0.13951833546161652, 0.2990509271621704, -0.3000546395778656, -0.07481852173805237, 0.023502115160226822, 0.03733481466770172, 0.16098666191101074, 0.025216689333319664, 0.13343258202075958, -0.045653458684682846, -0.02867971360683441, 0.052229832857847214, 0.14223144948482513, 0.10925843566656113, 0.1115587130188942], [-0.003301049815490842, -0.04933561012148857, -0.14909012615680695, 0.02502097189426422, -0.030493920668959618, -0.07317553460597992, 0.017586657777428627, -0.09913855791091919, -0.12346962094306946, 0.05454644933342934, 0.18640288710594177, 0.027827464044094086, -0.01678120344877243, 0.05876448005437851, 0.03680477663874626, 0.07175501435995102], [0.0018360276008024812, -0.04918033629655838, -0.0050979130901396275, 0.01069747656583786, -0.0033810283057391644, 0.030357355251908302, 0.013208412565290928, 0.1141715869307518, 0.18066993355751038, 0.019502785056829453, -0.19273339211940765, -0.035762205719947815, 0.10788476467132568, -0.12531033158302307, -0.025384750217199326, 0.06842800974845886], [0.11837168782949448, 0.10017021745443344, -0.30326855182647705, -0.18224194645881653, -0.020170116797089577, 0.02560279332101345, -0.01181869488209486, 0.16968992352485657, 0.006260142661631107, 0.0594559907913208, -0.035041000694036484, 0.09018927067518234, 0.0754517987370491, 0.004528612829744816, 0.0539645217359066, 0.17022420465946198], [-0.013773207552731037, -0.3641737401485443, -0.33621102571487427, -0.33818748593330383, 0.3151150047779083, 0.25635144114494324, -0.0366385355591774, 0.23186194896697998, 0.3295116722583771, 0.30109599232673645, -0.3146214783191681, 0.23263230919837952, 0.2073991894721985, -0.318752646446228, 0.0514797568321228, 0.24043767154216766], [0.19536817073822021, 0.05899279937148094, -0.2796194851398468, 0.23296140134334564, 0.04428324103355408, 0.271350622177124, 0.34306231141090393, 0.24614591896533966, -0.18096472322940826, 0.3087729215621948, 0.17604154348373413, -0.019301434978842735, -0.3616345226764679, 0.23989921808242798, 0.23981361091136932, -0.27154040336608887], [0.008819210343062878, 0.05741479620337486, -0.13130606710910797, 0.1610882431268692, 0.29955950379371643, 0.4657866060733795, 0.3650745749473572, 0.14777036011219025, -0.039655860513448715, 0.29811015725135803, 0.3071989119052887, 0.17378154397010803, 0.06148098036646843, -0.13947804272174835, -0.16884127259254456, 0.21360230445861816], [0.10891589522361755, 0.2745848596096039, 0.05311009660363197, 0.21715718507766724, -0.09091565757989883, 0.27594566345214844, 0.18532900512218475, 0.28948575258255005, 0.2175198495388031, 0.11877413094043732, -0.09481912851333618, -0.027898289263248444, 0.05067892372608185, -0.23660248517990112, 0.20744037628173828, -0.10858747363090515], [-0.052157387137413025, 0.11094675958156586, -0.2794078588485718, 0.3668506145477295, -0.12307019531726837, 0.24333027005195618, -0.1254921555519104, 0.06079057976603508, 0.029037153348326683, -0.07661958038806915, -0.06818048655986786, -0.12298370152711868, -0.14460279047489166, 0.23712363839149475, 0.28326427936553955, 0.22360631823539734], [0.4439225494861603, 0.18434230983257294, 0.05718459561467171, 0.04263098165392876, 0.1475154161453247, 0.13844013214111328, 0.127561554312706, 0.10935028642416, 0.11591412127017975, 0.05638211965560913, 0.06699944287538528, 0.012794967740774155, 0.1396186649799347, -0.1219944953918457, 0.008704466745257378, -0.020359786227345467], [-0.07507128268480301, -0.08696717768907547, -0.26536694169044495, 0.047282326966524124, 0.06845302134752274, -0.009381577372550964, -0.035092681646347046, 0.034736402332782745, 0.04153377562761307, -0.12322920560836792, -0.16103589534759521, -0.009810719639062881, 0.11447301506996155, 0.17913345992565155, 0.05502669885754585, -0.05960841849446297], [-0.030887117609381676, -0.1482449471950531, -0.0024400027468800545, -0.17275691032409668, -0.1320858746767044, -0.09089206159114838, 0.15522591769695282, -0.12002399563789368, 0.03693782538175583, 0.02456810511648655, -0.012770646251738071, 0.10679300129413605, -0.10350139439105988, -0.09100645780563354, -0.04700677469372749, -0.1990126371383667], [-0.43158531188964844, 0.25255492329597473, 0.3199663460254669, -0.1973879486322403, 0.0024599148891866207, -0.23925907909870148, 0.10438644140958786, -0.06938499212265015, 0.15411071479320526, 0.2629834711551666, -0.07046011090278625, 0.4626384377479553, 0.20442286133766174, -0.1362682431936264, 0.1595478653907776, 0.05943272262811661], [0.010043918155133724, 0.0187359806150198, -0.0005297783645801246, 0.009840878657996655, 0.06840013712644577, 0.03410189226269722, 0.05304350703954697, 0.2145702838897705, -0.14615164697170258, 0.03136356547474861, 0.10183999687433243, -0.07352760434150696, -0.019595663994550705, 0.11041364818811417, 0.05170479789376259, 0.10508666932582855], [-0.055139921605587006, -0.15272146463394165, 0.005319179035723209, 0.028526654466986656, 0.0142212500795722, -0.030575251206755638, 0.06212097406387329, 0.10857893526554108, -0.03917836397886276, 0.07735778391361237, 0.01591232419013977, -0.1395801305770874, 0.05267811194062233, 0.018767379224300385, 0.05956153944134712, 0.057425033301115036], [-0.009522547945380211, 0.08962442725896835, 0.13700205087661743, -0.06318959593772888, 0.06442243605852127, 0.09185481071472168, 0.05522247031331062, 0.1968401074409485, -0.03588002547621727, 0.08226379007101059, 0.01727849617600441, 0.13868913054466248, -0.01138610765337944, 0.09243610501289368, 0.21673747897148132, -0.0018427512841299176], [0.6926848888397217, -0.054005976766347885, 0.5526019930839539, -0.27559158205986023, -0.5941632390022278, -0.6081891059875488, 0.7609832882881165, 0.5475640892982483, 0.4472113251686096, 0.8479691743850708, 0.32186251878738403, 0.17012278735637665, -0.3050023317337036, 0.6746963858604431, -0.225091353058815, -0.702378511428833], [0.4720071852207184, 0.23494377732276917, 0.3151521682739258, -0.2494785040616989, -0.21886610984802246, -0.5745431780815125, 0.44619548320770264, 0.4387556314468384, 0.34553369879722595, 0.37426379323005676, 0.21548932790756226, 0.5053307414054871, -0.12683865427970886, 0.49138423800468445, -0.4943617880344391, -0.21224623918533325], [0.43396779894828796, 0.09135955572128296, -0.009778773412108421, -0.23026607930660248, -0.1527658849954605, -0.3716789484024048, 0.07402217388153076, 0.5246796011924744, 0.7054372429847717, 0.665518045425415, 0.5276310443878174, 0.4776308834552765, 0.24539069831371307, 0.6157448291778564, -0.009695096872746944, 0.05317983031272888], [-0.9684014320373535, -0.20849256217479706, -0.39015716314315796, -0.7329259514808655, 0.5318166613578796, -0.27121084928512573, -0.3417055606842041, -0.09256600588560104, -0.2596808969974518, 0.49007755517959595, -0.030744748190045357, -0.1905367374420166, -0.15007732808589935, 0.6608526110649109, -0.3996608853340149, 0.4057117998600006], [-0.15681804716587067, -0.41077449917793274, 0.04383920505642891, -0.01605476252734661, 0.25068309903144836, 0.2674424350261688, -0.6488733887672424, -0.17595204710960388, 0.5949925780296326, -0.15700866281986237, 0.34909945726394653, -0.3931901752948761, 0.3038579523563385, 0.2915799915790558, -0.05684927478432655, 0.410355806350708], [-0.4366019070148468, -0.6955579519271851, -0.02582312747836113, 0.5391846299171448, -0.31712907552719116, -0.25856465101242065, 0.40526923537254333, 0.6339691877365112, 0.5055882334709167, 0.35930708050727844, 0.2527121603488922, 0.45082566142082214, -0.3622189164161682, 0.809576153755188, -0.44402655959129333, -0.044019073247909546], [-0.32363295555114746, 0.037185776978731155, -0.3542301654815674, 0.08032336086034775, -0.09634607285261154, 0.1054789200425148, -0.24288608133792877, -0.18129803240299225, 0.4627944231033325, -0.38529250025749207, 0.5257365107536316, -0.43199729919433594, -0.279307097196579, 0.3976936638355255, -0.20201323926448822, 0.12275943905115128]], "1_weights": [[-0.2461167573928833, -0.23097266256809235, 0.10519956797361374, -0.14575809240341187, -0.3156310021877289, 0.732163667678833, -0.7764777541160583, 0.19792796671390533, 0.8044969439506531, 0.640143871307373, -0.27709609270095825, 0.6974679827690125, -0.4347677230834961, 0.43622902035713196, 0.2507990002632141, -0.1831599473953247], [0.029262425377964973, 0.10518980771303177, -0.038057442754507065, 0.3171679377555847, 0.7055231928825378, -0.376636266708374, 0.10096029937267303, -0.23253360390663147, -0.31679007411003113, -0.23092687129974365, -0.22533446550369263, -0.152099609375, 0.149660125374794, -0.47156670689582825, -0.2821902334690094, -0.04417673498392105], [-0.45721858739852905, 0.316283643245697, -0.13534173369407654, -0.0011445587733760476, 0.48467710614204407, -0.02267235331237316, 0.633739173412323, -0.3094567656517029, -0.19084979593753815, -0.4168078303337097, 0.06290572136640549, -0.09828735888004303, 0.11718402057886124, 0.1220216378569603, -0.12673160433769226, 0.0004561312380246818], [-0.033134330064058304, 0.004808912053704262, 0.5685749053955078, 0.17003513872623444, -0.6750177145004272, -0.03432320058345795, -0.33979111909866333, 0.1012045294046402, 0.6330182552337646, 0.25543636083602905, 0.3119392395019531, -0.42591631412506104, 0.33675822615623474, 0.242287740111351, -0.16340720653533936, 0.03161904960870743], [0.15773770213127136, 0.12816421687602997, -0.175408735871315, 0.22700874507427216, -0.09194299578666687, 0.2751457691192627, -0.3892700672149658, -0.2577628195285797, -0.30754193663597107, 0.17029158771038055, -0.1906288117170334, 0.3290194272994995, 0.12628258764743805, -0.36349016427993774, 0.01884644106030464, -0.2378813624382019], [-0.21394065022468567, 0.049904994666576385, 0.26326581835746765, -0.1768971085548401, 0.24120543897151947, -0.1268008053302765, -0.33410346508026123, 0.03791637718677521, 0.5442478060722351, 0.10320133715867996, 0.1422463059425354, -0.0022222469560801983, -0.10140441358089447, -0.12533779442310333, -0.11961126327514648, 0.16343602538108826], [0.6800673007965088, -0.21449585258960724, 0.1748151183128357, 0.06067723408341408, 0.31334632635116577, -0.2727981209754944, 0.8361333608627319, -0.199639230966568, 0.38873884081840515, -0.213552787899971, 0.1639813631772995, -0.09006857126951218, -0.3435736894607544, -0.7232241630554199, -0.3626333475112915, 0.18541240692138672], [0.2380955070257187, -0.1716078370809555, 0.15830588340759277, 0.039123378694057465, 0.07051695138216019, -0.1553087681531906, 0.44404059648513794, 0.3749220669269562, -0.013770944438874722, -0.22637823224067688, -0.06436560302972794, -0.027305519208312035, -0.25044360756874084, 0.3635828197002411, 0.29847365617752075, -0.04258241876959801], [0.20589250326156616, -0.25192928314208984, -0.13885465264320374, -0.06311939656734467, -0.07909993082284927, 0.5362457036972046, -0.09873247146606445, 0.5740822553634644, -0.1405308097600937, 0.05070872604846954, 0.10712971538305283, 0.14995741844177246, -0.1402388960123062, 0.34030234813690186, -0.13786301016807556, -0.12187802791595459], [0.12232320755720139, 0.021013673394918442, -0.21944375336170197, 0.26269444823265076, -0.08093467354774475, -0.3164578974246979, 0.5293418169021606, 0.06739042699337006, -0.13365067541599274, 0.20857712626457214, -0.9099808931350708, 0.20081506669521332, -0.3683796525001526, 0.045756787061691284, 0.3056330382823944, 0.038765765726566315], [0.4001804292201996, -0.35841912031173706, 0.27311041951179504, -0.17580565810203552, 0.10929367691278458, 0.3421775996685028, -0.2430219054222107, 0.4954250156879425, 0.14469999074935913, -0.10506986826658249, 0.320263534784317, 0.04350966215133667, -0.20512086153030396, 0.3298645317554474, 0.19419370591640472, 0.026851210743188858], [-0.15188823640346527, 0.1302938014268875, -0.3928671181201935, 0.3485914468765259, 0.55191570520401, -0.10527922958135605, 0.7653878927230835, -0.5407010316848755, -0.3786221444606781, -0.1496126353740692, -0.36251556873321533, -0.1421705037355423, 0.13070867955684662, 0.07636869698762894, -0.14441323280334473, -0.2194279283285141], [-0.03740028664469719, -0.31186026334762573, 0.11953145265579224, -0.0614546462893486, 0.15213504433631897, 0.18869757652282715, -0.3111438453197479, -0.14803002774715424, -0.022922996431589127, 0.040798120200634, -0.14381608366966248, 0.052433159202337265, -0.30819132924079895, -0.2328919619321823, -0.08562123030424118, 0.2991044819355011], [-0.0488584041595459, 0.031008990481495857, -0.4059247076511383, 0.13957063853740692, -0.286409467458725, -0.043983567506074905, 0.040541376918554306, 0.0007098227506503463, -0.3635006546974182, 0.3707619309425354, -0.4994758367538452, -0.13175247609615326, -0.2773055136203766, 0.43493416905403137, -0.054043740034103394, 0.15757586061954498], [0.17797483503818512, -0.32766321301460266, 0.07378055900335312, 0.2599009871482849, -0.0724642425775528, 0.30031806230545044, 0.1851634681224823, -0.11746812611818314, 0.08165863901376724, -0.20209142565727234, 0.3280985951423645, 0.24824370443820953, -0.060773804783821106, -0.4211636483669281, -0.22391746938228607, -0.04200432449579239], [0.0746268555521965, 0.1968843638896942, -0.2846212387084961, -0.18152976036071777, 0.04314981400966644, -0.20765170454978943, -0.22281980514526367, 0.03792515769600868, -0.31593918800354004, 0.1923091560602188, 0.052511055022478104, -0.08514248579740524, -0.21765835583209991, -0.11571300774812698, 0.024827616289258003, -0.2315705269575119]], "2_weights": [[-0.5127774477005005, 0.31110551953315735, 0.25733816623687744], [0.3930893540382385, 0.18463294208049774, 0.10005611181259155], [-0.7109569907188416, -0.1600833684206009, 0.26140719652175903], [0.43329110741615295, -0.0073059010319411755, 0.3473202884197235], [0.7901431322097778, 0.5844389796257019, 0.6297197937965393], [-0.1869533658027649, -0.692258358001709, -0.6147976517677307], [0.7928406000137329, 0.9825355410575867, 1.1371307373046875], [-0.0988783985376358, -0.6423431038856506, -0.47943273186683655], [-1.0664671659469604, -0.9333244562149048, -0.3916701674461365], [0.2592659890651703, -0.18816733360290527, -0.39858078956604004], [1.0196795463562012, 1.151909351348877, 0.583002507686615], [-0.3626272976398468, 0.14994652569293976, -0.2747204601764679], [-0.07866796851158142, -0.2829228937625885, 0.28466784954071045], [-0.6535236239433289, -0.34705641865730286, -0.5890671014785767], [0.5037405490875244, -0.3152884542942047, -0.1139526441693306], [-0.34163516759872437, -0.4928751289844513, -0.1057850569486618]], "0_bias": [0.13031376898288727, -0.09557563811540604, 0.018572986125946045, -0.01040690392255783, 0.06559031456708908, 0.16263136267662048, 0.11313982307910919, 0.0973706990480423, 0.026318423449993134, 0.09403499960899353, 0.01954684779047966, 0.041700515896081924, -0.020303457975387573, -0.059787262231111526, 0.06701800227165222, 0.07093307375907898], "1_bias": [0.03519854694604874, -0.05100936442613602, 0.21341432631015778, 0.05765138193964958, 0.016565363854169846, 0.03796384856104851, 0.02887624129652977, -0.009245769120752811, 0.10945162922143936, -0.008916815742850304, -0.033022478222846985, 0.012049801647663116, -0.010751142166554928, 0.005712379701435566, 0.10015653818845749, -0.07247453182935715], "2_bias": [-0.022551769390702248, 0.02960999310016632, 0.0051927752792835236], "format": "png"}